Language model created by QuickLM on Mon Jan 31 02:55:34 EST 2022
Copyright (c) 1996-2010 Carnegie Mellon University and Alexander I. Rudnicky

The model is in standard ARPA format, designed by Doug Paul while he was at MITRE.

The code that was used to produce this language model is available in Open Source.
Please visit http://www.speech.cs.cmu.edu/tools/ for more information

The (fixed) discount mass is 0.5. The backoffs are computed using the ratio method.
This model based on a corpus of 5 sentences and 11 words

\data\
ngram 1=11
ngram 2=14
ngram 3=9

\1-grams:
-0.8808 </s> -0.3010
-0.8808 <s> -0.2398
-1.5798 CHANGE -0.2894
-1.5798 CHATTING -0.2398
-1.5798 DIGI -0.2398
-1.5798 GAME -0.2398
-1.5798 JUST -0.2894
-1.5798 OVERWATCH -0.2398
-1.5798 RHYTHM -0.2894
-1.5798 SPIN -0.2894
-1.5798 XD -0.2398

\2-grams:
-1.0000 <s> CHANGE 0.0000
-1.0000 <s> DIGI 0.0000
-1.0000 <s> JUST 0.0000
-1.0000 <s> OVERWATCH 0.0000
-1.0000 <s> SPIN 0.0000
-0.3010 CHANGE GAME 0.0000
-0.3010 CHATTING </s> -0.3010
-0.3010 DIGI </s> -0.3010
-0.3010 GAME </s> -0.3010
-0.3010 JUST CHATTING 0.0000
-0.3010 OVERWATCH </s> -0.3010
-0.3010 RHYTHM XD 0.0000
-0.3010 SPIN RHYTHM 0.0000
-0.3010 XD </s> -0.3010

\3-grams:
-0.3010 <s> CHANGE GAME
-0.3010 <s> DIGI </s>
-0.3010 <s> JUST CHATTING
-0.3010 <s> OVERWATCH </s>
-0.3010 <s> SPIN RHYTHM
-0.3010 CHANGE GAME </s>
-0.3010 JUST CHATTING </s>
-0.3010 RHYTHM XD </s>
-0.3010 SPIN RHYTHM XD

\end\